{
  "version": "crash_model_v3",
  "weights": [
    0.010216351603579445,
    -0.9311199867962091,
    0.056844973792151525,
    -0.2459456276772508,
    -0.36449934687794866,
    -0.24394616514915332,
    0.21317778409338556,
    0.20531625730302389,
    0.19129471863627756,
    -0.3785016946470034,
    -0.042720032084961175,
    -0.14661390233591076,
    -0.19580274115588361,
    -0.10987047172713864,
    0.09972287831094218,
    -0.023946887096664506,
    0.027475409060203723,
    -0.0024127862590483493,
    0.012252043167553227,
    -0.013167741825096167,
    -0.0691468362005993,
    -0.017859079067007403,
    0.0,
    0.04621846785763859,
    0.0,
    -0.05286597238938697,
    0.012147398770337131,
    0.028156103073458526,
    -0.18347914231092052
  ],
  "bias": -0.6188220996942773,
  "feature_means": [
    0.9927883967402902,
    55.490265499425945,
    4.434831371986222,
    2.7804161882893226,
    2.733997560275545,
    3.1021512629161885,
    -0.2817512657168059,
    0.5623113332061941,
    0.9116181884765051,
    0.20216497477578174,
    0.4695506603451932,
    0.26600313803984194,
    0.15255453501722158,
    0.2781285878300804,
    0.09435993111366246,
    0.3256314580941447,
    0.0003867228403974612,
    0.0018698946062670277,
    -0.026346253448325165,
    -6.173003183562446e-05,
    0.20271239954075776,
    0.11129448909299655,
    0.0,
    0.45731917336394945,
    0.0,
    20.29589013952385,
    0.007882827418197473,
    0.00047621457230549843,
    0.24497907214186673
  ],
  "feature_stds": [
    3.597960231275557,
    27.061295796433942,
    0.5303160412402589,
    0.7089097555282053,
    0.9910386428164502,
    0.9291653394206058,
    0.21188206420045383,
    0.20258668914364825,
    1.50186761958425,
    0.2673408739727796,
    0.5130557875555326,
    0.6155234207248843,
    0.3595575737804738,
    0.4480770876330608,
    0.2923288123225067,
    0.46861029821550654,
    0.04597359603872131,
    0.1072773237368749,
    0.10646661341305338,
    0.11876847976390126,
    0.4020200027525819,
    0.3144964638760274,
    1.0,
    0.10201171264894807,
    1.0,
    1880.0381718412962,
    0.0824995583410012,
    0.05269161703330481,
    0.21721890524456214
  ],
  "feature_names": [
    "vol_30d",
    "trust_p3_maintenance",
    "sig6_str",
    "ndd_min_4w",
    "sig5_cont",
    "sig3_res",
    "drawdown_90d",
    "btc_vol_30d",
    "ix_vol_x_ndd_weak",
    "ix_drawdown_x_cont",
    "ix_btcvol_x_ndd_weak",
    "ix_vol_x_maint_low",
    "nl_ndd_below_2",
    "nl_drawdown_severe",
    "nl_vol_extreme",
    "nl_trust_p3_low",
    "tvl_momentum_7d",
    "tvl_momentum_30d",
    "tvl_drawdown",
    "tvl_vs_price_divergence",
    "has_tvl_data",
    "has_audit",
    "is_fork",
    "category_risk",
    "protocol_age_days",
    "chain_stablecoin_change_30d",
    "yield_anomaly",
    "ix_tvl_div_x_trust",
    "ix_no_audit_x_drawdown"
  ],
  "is_auc": 0.23420575833928925,
  "oos_auc": 0.29818280943479314,
  "run_date": "2026-03-01T20:38:35.064253"
}